digraph Tree {
node [shape=box] ;
0 [label="X[0] <= -0.265\ngini = 0.497\nsamples = 33199\nvalue = [15394, 17805]"] ;
1 [label="X[2] <= -0.337\ngini = 0.337\nsamples = 15372\nvalue = [12072, 3300]"] ;
0 -> 1 [labeldistance=2.5, labelangle=45, headlabel="True"] ;
2 [label="X[0] <= -0.305\ngini = 0.492\nsamples = 3922\nvalue = [1716, 2206]"] ;
1 -> 2 ;
3 [label="X[5] <= -1.566\ngini = 0.443\nsamples = 2329\nvalue = [1558, 771]"] ;
2 -> 3 ;
4 [label="gini = 0.0\nsamples = 140\nvalue = [0, 140]"] ;
3 -> 4 ;
5 [label="X[2] <= -0.347\ngini = 0.41\nsamples = 2189\nvalue = [1558, 631]"] ;
3 -> 5 ;
6 [label="X[2] <= -0.349\ngini = 0.499\nsamples = 757\nvalue = [395, 362]"] ;
5 -> 6 ;
7 [label="X[0] <= -0.32\ngini = 0.07\nsamples = 83\nvalue = [3, 80]"] ;
6 -> 7 ;
8 [label="X[3] <= 0.265\ngini = 0.211\nsamples = 25\nvalue = [3, 22]"] ;
7 -> 8 ;
9 [label="X[3] <= -0.821\ngini = 0.305\nsamples = 16\nvalue = [3, 13]"] ;
8 -> 9 ;
10 [label="gini = 0.0\nsamples = 7\nvalue = [0, 7]"] ;
9 -> 10 ;
11 [label="gini = 0.444\nsamples = 9\nvalue = [3, 6]"] ;
9 -> 11 ;
12 [label="gini = 0.0\nsamples = 9\nvalue = [0, 9]"] ;
8 -> 12 ;
13 [label="gini = 0.0\nsamples = 58\nvalue = [0, 58]"] ;
7 -> 13 ;
14 [label="X[0] <= -0.312\ngini = 0.487\nsamples = 674\nvalue = [392, 282]"] ;
6 -> 14 ;
15 [label="X[0] <= -0.321\ngini = 0.464\nsamples = 572\nvalue = [363, 209]"] ;
14 -> 15 ;
16 [label="X[4] <= -0.375\ngini = 0.039\nsamples = 50\nvalue = [49, 1]"] ;
15 -> 16 ;
17 [label="gini = 0.0\nsamples = 43\nvalue = [43, 0]"] ;
16 -> 17 ;
18 [label="gini = 0.245\nsamples = 7\nvalue = [6, 1]"] ;
16 -> 18 ;
19 [label="X[5] <= -0.704\ngini = 0.479\nsamples = 522\nvalue = [314, 208]"] ;
15 -> 19 ;
20 [label="gini = 0.496\nsamples = 204\nvalue = [93, 111]"] ;
19 -> 20 ;
21 [label="gini = 0.424\nsamples = 318\nvalue = [221, 97]"] ;
19 -> 21 ;
22 [label="X[3] <= -0.097\ngini = 0.407\nsamples = 102\nvalue = [29, 73]"] ;
14 -> 22 ;
23 [label="X[1] <= -0.056\ngini = 0.5\nsamples = 46\nvalue = [23, 23]"] ;
22 -> 23 ;
24 [label="gini = 0.32\nsamples = 15\nvalue = [3, 12]"] ;
23 -> 24 ;
25 [label="gini = 0.458\nsamples = 31\nvalue = [20, 11]"] ;
23 -> 25 ;
26 [label="X[1] <= -0.056\ngini = 0.191\nsamples = 56\nvalue = [6, 50]"] ;
22 -> 26 ;
27 [label="gini = 0.089\nsamples = 43\nvalue = [2, 41]"] ;
26 -> 27 ;
28 [label="gini = 0.426\nsamples = 13\nvalue = [4, 9]"] ;
26 -> 28 ;
29 [label="X[0] <= -0.315\ngini = 0.305\nsamples = 1432\nvalue = [1163, 269]"] ;
5 -> 29 ;
30 [label="X[1] <= -0.056\ngini = 0.173\nsamples = 847\nvalue = [766, 81]"] ;
29 -> 30 ;
31 [label="X[0] <= -0.319\ngini = 0.234\nsamples = 539\nvalue = [466, 73]"] ;
30 -> 31 ;
32 [label="X[1] <= -0.056\ngini = 0.125\nsamples = 313\nvalue = [292, 21]"] ;
31 -> 32 ;
33 [label="gini = 0.249\nsamples = 110\nvalue = [94, 16]"] ;
32 -> 33 ;
34 [label="gini = 0.048\nsamples = 203\nvalue = [198, 5]"] ;
32 -> 34 ;
35 [label="X[5] <= -0.708\ngini = 0.354\nsamples = 226\nvalue = [174, 52]"] ;
31 -> 35 ;
36 [label="gini = 0.48\nsamples = 10\nvalue = [4, 6]"] ;
35 -> 36 ;
37 [label="gini = 0.335\nsamples = 216\nvalue = [170, 46]"] ;
35 -> 37 ;
38 [label="X[2] <= -0.345\ngini = 0.051\nsamples = 308\nvalue = [300, 8]"] ;
30 -> 38 ;
39 [label="X[0] <= -0.317\ngini = 0.131\nsamples = 85\nvalue = [79, 6]"] ;
38 -> 39 ;
40 [label="gini = 0.067\nsamples = 58\nvalue = [56, 2]"] ;
39 -> 40 ;
41 [label="gini = 0.252\nsamples = 27\nvalue = [23, 4]"] ;
39 -> 41 ;
42 [label="X[1] <= -0.055\ngini = 0.018\nsamples = 223\nvalue = [221, 2]"] ;
38 -> 42 ;
43 [label="gini = 0.0\nsamples = 168\nvalue = [168, 0]"] ;
42 -> 43 ;
44 [label="gini = 0.07\nsamples = 55\nvalue = [53, 2]"] ;
42 -> 44 ;
45 [label="X[1] <= -0.056\ngini = 0.436\nsamples = 585\nvalue = [397, 188]"] ;
29 -> 45 ;
46 [label="X[5] <= 0.146\ngini = 0.491\nsamples = 192\nvalue = [83, 109]"] ;
45 -> 46 ;
47 [label="X[0] <= -0.31\ngini = 0.468\nsamples = 174\nvalue = [65, 109]"] ;
46 -> 47 ;
48 [label="gini = 0.495\nsamples = 131\nvalue = [59, 72]"] ;
47 -> 48 ;
49 [label="gini = 0.24\nsamples = 43\nvalue = [6, 37]"] ;
47 -> 49 ;
50 [label="gini = 0.0\nsamples = 18\nvalue = [18, 0]"] ;
46 -> 50 ;
51 [label="X[5] <= 0.144\ngini = 0.321\nsamples = 393\nvalue = [314, 79]"] ;
45 -> 51 ;
52 [label="X[5] <= -0.695\ngini = 0.37\nsamples = 318\nvalue = [240, 78]"] ;
51 -> 52 ;
53 [label="gini = 0.318\nsamples = 287\nvalue = [230, 57]"] ;
52 -> 53 ;
54 [label="gini = 0.437\nsamples = 31\nvalue = [10, 21]"] ;
52 -> 54 ;
55 [label="X[5] <= 0.481\ngini = 0.026\nsamples = 75\nvalue = [74, 1]"] ;
51 -> 55 ;
56 [label="gini = 0.0\nsamples = 68\nvalue = [68, 0]"] ;
55 -> 56 ;
57 [label="gini = 0.245\nsamples = 7\nvalue = [6, 1]"] ;
55 -> 57 ;
58 [label="X[2] <= -0.347\ngini = 0.179\nsamples = 1593\nvalue = [158, 1435]"] ;
2 -> 58 ;
59 [label="X[0] <= -0.302\ngini = 0.022\nsamples = 722\nvalue = [8, 714]"] ;
58 -> 59 ;
60 [label="X[1] <= -0.056\ngini = 0.13\nsamples = 43\nvalue = [3, 40]"] ;
59 -> 60 ;
61 [label="gini = 0.0\nsamples = 35\nvalue = [0, 35]"] ;
60 -> 61 ;
62 [label="gini = 0.469\nsamples = 8\nvalue = [3, 5]"] ;
60 -> 62 ;
63 [label="X[1] <= -0.051\ngini = 0.015\nsamples = 679\nvalue = [5, 674]"] ;
59 -> 63 ;
64 [label="X[5] <= 0.146\ngini = 0.012\nsamples = 669\nvalue = [4, 665]"] ;
63 -> 64 ;
65 [label="gini = 0.0\nsamples = 338\nvalue = [0, 338]"] ;
64 -> 65 ;
66 [label="X[0] <= -0.297\ngini = 0.024\nsamples = 331\nvalue = [4, 327]"] ;
64 -> 66 ;
67 [label="gini = 0.153\nsamples = 12\nvalue = [1, 11]"] ;
66 -> 67 ;
68 [label="X[1] <= -0.053\ngini = 0.019\nsamples = 319\nvalue = [3, 316]"] ;
66 -> 68 ;
69 [label="gini = 0.013\nsamples = 298\nvalue = [2, 296]"] ;
68 -> 69 ;
70 [label="gini = 0.091\nsamples = 21\nvalue = [1, 20]"] ;
68 -> 70 ;
71 [label="gini = 0.18\nsamples = 10\nvalue = [1, 9]"] ;
63 -> 71 ;
72 [label="X[0] <= -0.3\ngini = 0.285\nsamples = 871\nvalue = [150, 721]"] ;
58 -> 72 ;
73 [label="X[5] <= 0.146\ngini = 0.483\nsamples = 142\nvalue = [58, 84]"] ;
72 -> 73 ;
74 [label="X[1] <= -0.055\ngini = 0.382\nsamples = 109\nvalue = [28, 81]"] ;
73 -> 74 ;
75 [label="X[5] <= -0.56\ngini = 0.198\nsamples = 63\nvalue = [7, 56]"] ;
74 -> 75 ;
76 [label="X[2] <= -0.346\ngini = 0.289\nsamples = 40\nvalue = [7, 33]"] ;
75 -> 76 ;
77 [label="gini = 0.459\nsamples = 14\nvalue = [5, 9]"] ;
76 -> 77 ;
78 [label="gini = 0.142\nsamples = 26\nvalue = [2, 24]"] ;
76 -> 78 ;
79 [label="gini = 0.0\nsamples = 23\nvalue = [0, 23]"] ;
75 -> 79 ;
80 [label="X[5] <= -0.383\ngini = 0.496\nsamples = 46\nvalue = [21, 25]"] ;
74 -> 80 ;
81 [label="X[2] <= -0.345\ngini = 0.478\nsamples = 33\nvalue = [20, 13]"] ;
80 -> 81 ;
82 [label="gini = 0.198\nsamples = 9\nvalue = [1, 8]"] ;
81 -> 82 ;
83 [label="gini = 0.33\nsamples = 24\nvalue = [19, 5]"] ;
81 -> 83 ;
84 [label="gini = 0.142\nsamples = 13\nvalue = [1, 12]"] ;
80 -> 84 ;
85 [label="X[1] <= -0.055\ngini = 0.165\nsamples = 33\nvalue = [30, 3]"] ;
73 -> 85 ;
86 [label="gini = 0.49\nsamples = 7\nvalue = [4, 3]"] ;
85 -> 86 ;
87 [label="gini = 0.0\nsamples = 26\nvalue = [26, 0]"] ;
85 -> 87 ;
88 [label="X[5] <= 0.146\ngini = 0.221\nsamples = 729\nvalue = [92, 637]"] ;
72 -> 88 ;
89 [label="X[0] <= -0.291\ngini = 0.033\nsamples = 296\nvalue = [5, 291]"] ;
88 -> 89 ;
90 [label="X[1] <= -0.054\ngini = 0.068\nsamples = 142\nvalue = [5, 137]"] ;
89 -> 90 ;
91 [label="X[5] <= -0.701\ngini = 0.03\nsamples = 130\nvalue = [2, 128]"] ;
90 -> 91 ;
92 [label="gini = 0.077\nsamples = 50\nvalue = [2, 48]"] ;
91 -> 92 ;
93 [label="gini = 0.0\nsamples = 80\nvalue = [0, 80]"] ;
91 -> 93 ;
94 [label="gini = 0.375\nsamples = 12\nvalue = [3, 9]"] ;
90 -> 94 ;
95 [label="gini = 0.0\nsamples = 154\nvalue = [0, 154]"] ;
89 -> 95 ;
96 [label="X[0] <= -0.283\ngini = 0.321\nsamples = 433\nvalue = [87, 346]"] ;
88 -> 96 ;
97 [label="X[1] <= -0.055\ngini = 0.439\nsamples = 203\nvalue = [66, 137]"] ;
96 -> 97 ;
98 [label="X[0] <= -0.298\ngini = 0.326\nsamples = 122\nvalue = [25, 97]"] ;
97 -> 98 ;
99 [label="gini = 0.408\nsamples = 7\nvalue = [5, 2]"] ;
98 -> 99 ;
100 [label="gini = 0.287\nsamples = 115\nvalue = [20, 95]"] ;
98 -> 100 ;
101 [label="X[3] <= 0.989\ngini = 0.5\nsamples = 81\nvalue = [41, 40]"] ;
97 -> 101 ;
102 [label="gini = 0.459\nsamples = 56\nvalue = [36, 20]"] ;
101 -> 102 ;
103 [label="gini = 0.32\nsamples = 25\nvalue = [5, 20]"] ;
101 -> 103 ;
104 [label="X[0] <= -0.265\ngini = 0.166\nsamples = 230\nvalue = [21, 209]"] ;
96 -> 104 ;
105 [label="X[3] <= -0.459\ngini = 0.143\nsamples = 220\nvalue = [17, 203]"] ;
104 -> 105 ;
106 [label="gini = 0.301\nsamples = 65\nvalue = [12, 53]"] ;
105 -> 106 ;
107 [label="gini = 0.062\nsamples = 155\nvalue = [5, 150]"] ;
105 -> 107 ;
108 [label="gini = 0.48\nsamples = 10\nvalue = [4, 6]"] ;
104 -> 108 ;
109 [label="X[5] <= -1.558\ngini = 0.173\nsamples = 11450\nvalue = [10356, 1094]"] ;
1 -> 109 ;
110 [label="gini = 0.0\nsamples = 186\nvalue = [0, 186]"] ;
109 -> 110 ;
111 [label="X[2] <= -0.293\ngini = 0.148\nsamples = 11264\nvalue = [10356, 908]"] ;
109 -> 111 ;
112 [label="X[0] <= -0.299\ngini = 0.313\nsamples = 3054\nvalue = [2462, 592]"] ;
111 -> 112 ;
113 [label="X[0] <= -0.305\ngini = 0.122\nsamples = 2204\nvalue = [2060, 144]"] ;
112 -> 113 ;
114 [label="X[2] <= -0.327\ngini = 0.092\nsamples = 1906\nvalue = [1814, 92]"] ;
113 -> 114 ;
115 [label="X[0] <= -0.311\ngini = 0.165\nsamples = 716\nvalue = [651, 65]"] ;
114 -> 115 ;
116 [label="X[4] <= 0.685\ngini = 0.112\nsamples = 572\nvalue = [538, 34]"] ;
115 -> 116 ;
117 [label="gini = 0.086\nsamples = 512\nvalue = [489, 23]"] ;
116 -> 117 ;
118 [label="gini = 0.299\nsamples = 60\nvalue = [49, 11]"] ;
116 -> 118 ;
119 [label="X[1] <= -0.056\ngini = 0.338\nsamples = 144\nvalue = [113, 31]"] ;
115 -> 119 ;
120 [label="gini = 0.363\nsamples = 21\nvalue = [5, 16]"] ;
119 -> 120 ;
121 [label="gini = 0.214\nsamples = 123\nvalue = [108, 15]"] ;
119 -> 121 ;
122 [label="X[1] <= -0.056\ngini = 0.044\nsamples = 1190\nvalue = [1163, 27]"] ;
114 -> 122 ;
123 [label="X[0] <= -0.319\ngini = 0.268\nsamples = 44\nvalue = [37, 7]"] ;
122 -> 123 ;
124 [label="gini = 0.0\nsamples = 30\nvalue = [30, 0]"] ;
123 -> 124 ;
125 [label="gini = 0.5\nsamples = 14\nvalue = [7, 7]"] ;
123 -> 125 ;
126 [label="X[5] <= -0.763\ngini = 0.034\nsamples = 1146\nvalue = [1126, 20]"] ;
122 -> 126 ;
127 [label="gini = 0.095\nsamples = 80\nvalue = [76, 4]"] ;
126 -> 127 ;
128 [label="gini = 0.03\nsamples = 1066\nvalue = [1050, 16]"] ;
126 -> 128 ;
129 [label="X[5] <= 0.146\ngini = 0.288\nsamples = 298\nvalue = [246, 52]"] ;
113 -> 129 ;
130 [label="X[5] <= -0.701\ngini = 0.446\nsamples = 152\nvalue = [101, 51]"] ;
129 -> 130 ;
131 [label="X[0] <= -0.301\ngini = 0.213\nsamples = 99\nvalue = [87, 12]"] ;
130 -> 131 ;
132 [label="gini = 0.121\nsamples = 77\nvalue = [72, 5]"] ;
131 -> 132 ;
133 [label="gini = 0.434\nsamples = 22\nvalue = [15, 7]"] ;
131 -> 133 ;
134 [label="X[3] <= -1.183\ngini = 0.389\nsamples = 53\nvalue = [14, 39]"] ;
130 -> 134 ;
135 [label="gini = 0.375\nsamples = 8\nvalue = [6, 2]"] ;
134 -> 135 ;
136 [label="gini = 0.292\nsamples = 45\nvalue = [8, 37]"] ;
134 -> 136 ;
137 [label="X[1] <= -0.05\ngini = 0.014\nsamples = 146\nvalue = [145, 1]"] ;
129 -> 137 ;
138 [label="gini = 0.0\nsamples = 139\nvalue = [139, 0]"] ;
137 -> 138 ;
139 [label="gini = 0.245\nsamples = 7\nvalue = [6, 1]"] ;
137 -> 139 ;
140 [label="X[5] <= 0.146\ngini = 0.499\nsamples = 850\nvalue = [402, 448]"] ;
112 -> 140 ;
141 [label="X[5] <= -0.333\ngini = 0.291\nsamples = 192\nvalue = [34, 158]"] ;
140 -> 141 ;
142 [label="X[5] <= -0.706\ngini = 0.397\nsamples = 106\nvalue = [29, 77]"] ;
141 -> 142 ;
143 [label="gini = 0.0\nsamples = 35\nvalue = [0, 35]"] ;
142 -> 143 ;
144 [label="X[5] <= -0.701\ngini = 0.483\nsamples = 71\nvalue = [29, 42]"] ;
142 -> 144 ;
145 [label="gini = 0.384\nsamples = 27\nvalue = [20, 7]"] ;
144 -> 145 ;
146 [label="gini = 0.325\nsamples = 44\nvalue = [9, 35]"] ;
144 -> 146 ;
147 [label="X[1] <= -0.054\ngini = 0.11\nsamples = 86\nvalue = [5, 81]"] ;
141 -> 147 ;
148 [label="gini = 0.0\nsamples = 50\nvalue = [0, 50]"] ;
147 -> 148 ;
149 [label="X[0] <= -0.294\ngini = 0.239\nsamples = 36\nvalue = [5, 31]"] ;
147 -> 149 ;
150 [label="gini = 0.5\nsamples = 8\nvalue = [4, 4]"] ;
149 -> 150 ;
151 [label="gini = 0.069\nsamples = 28\nvalue = [1, 27]"] ;
149 -> 151 ;
152 [label="X[0] <= -0.289\ngini = 0.493\nsamples = 658\nvalue = [368, 290]"] ;
140 -> 152 ;
153 [label="X[1] <= -0.055\ngini = 0.372\nsamples = 243\nvalue = [183, 60]"] ;
152 -> 153 ;
154 [label="X[4] <= -0.115\ngini = 0.479\nsamples = 58\nvalue = [23, 35]"] ;
153 -> 154 ;
155 [label="gini = 0.5\nsamples = 36\nvalue = [18, 18]"] ;
154 -> 155 ;
156 [label="gini = 0.351\nsamples = 22\nvalue = [5, 17]"] ;
154 -> 156 ;
157 [label="X[2] <= -0.333\ngini = 0.234\nsamples = 185\nvalue = [160, 25]"] ;
153 -> 157 ;
158 [label="gini = 0.492\nsamples = 16\nvalue = [9, 7]"] ;
157 -> 158 ;
159 [label="gini = 0.19\nsamples = 169\nvalue = [151, 18]"] ;
157 -> 159 ;
160 [label="X[2] <= -0.323\ngini = 0.494\nsamples = 415\nvalue = [185, 230]"] ;
152 -> 160 ;
161 [label="X[4] <= 0.126\ngini = 0.438\nsamples = 179\nvalue = [58, 121]"] ;
160 -> 161 ;
162 [label="gini = 0.475\nsamples = 108\nvalue = [42, 66]"] ;
161 -> 162 ;
163 [label="gini = 0.349\nsamples = 71\nvalue = [16, 55]"] ;
161 -> 163 ;
164 [label="X[1] <= -0.054\ngini = 0.497\nsamples = 236\nvalue = [127, 109]"] ;
160 -> 164 ;
165 [label="gini = 0.472\nsamples = 89\nvalue = [34, 55]"] ;
164 -> 165 ;
166 [label="gini = 0.465\nsamples = 147\nvalue = [93, 54]"] ;
164 -> 166 ;
167 [label="X[0] <= -0.287\ngini = 0.074\nsamples = 8210\nvalue = [7894, 316]"] ;
111 -> 167 ;
168 [label="X[0] <= -0.295\ngini = 0.033\nsamples = 6327\nvalue = [6220, 107]"] ;
167 -> 168 ;
169 [label="X[0] <= -0.304\ngini = 0.02\nsamples = 5232\nvalue = [5179, 53]"] ;
168 -> 169 ;
170 [label="X[5] <= -0.689\ngini = 0.011\nsamples = 3555\nvalue = [3536, 19]"] ;
169 -> 170 ;
171 [label="X[1] <= -0.056\ngini = 0.006\nsamples = 2794\nvalue = [2786, 8]"] ;
170 -> 171 ;
172 [label="gini = 0.036\nsamples = 163\nvalue = [160, 3]"] ;
171 -> 172 ;
173 [label="gini = 0.004\nsamples = 2631\nvalue = [2626, 5]"] ;
171 -> 173 ;
174 [label="X[5] <= 0.12\ngini = 0.028\nsamples = 761\nvalue = [750, 11]"] ;
170 -> 174 ;
175 [label="gini = 0.125\nsamples = 164\nvalue = [153, 11]"] ;
174 -> 175 ;
176 [label="gini = 0.0\nsamples = 597\nvalue = [597, 0]"] ;
174 -> 176 ;
177 [label="X[5] <= 0.133\ngini = 0.04\nsamples = 1677\nvalue = [1643, 34]"] ;
169 -> 177 ;
178 [label="X[5] <= -0.701\ngini = 0.117\nsamples = 530\nvalue = [497, 33]"] ;
177 -> 178 ;
179 [label="gini = 0.036\nsamples = 377\nvalue = [370, 7]"] ;
178 -> 179 ;
180 [label="gini = 0.282\nsamples = 153\nvalue = [127, 26]"] ;
178 -> 180 ;
181 [label="X[0] <= -0.295\ngini = 0.002\nsamples = 1147\nvalue = [1146, 1]"] ;
177 -> 181 ;
182 [label="gini = 0.0\nsamples = 1118\nvalue = [1118, 0]"] ;
181 -> 182 ;
183 [label="gini = 0.067\nsamples = 29\nvalue = [28, 1]"] ;
181 -> 183 ;
184 [label="X[5] <= 0.113\ngini = 0.094\nsamples = 1095\nvalue = [1041, 54]"] ;
168 -> 184 ;
185 [label="X[5] <= -0.695\ngini = 0.474\nsamples = 101\nvalue = [62, 39]"] ;
184 -> 185 ;
186 [label="X[5] <= -0.713\ngini = 0.254\nsamples = 47\nvalue = [40, 7]"] ;
185 -> 186 ;
187 [label="gini = 0.245\nsamples = 7\nvalue = [1, 6]"] ;
186 -> 187 ;
188 [label="gini = 0.049\nsamples = 40\nvalue = [39, 1]"] ;
186 -> 188 ;
189 [label="X[2] <= -0.048\ngini = 0.483\nsamples = 54\nvalue = [22, 32]"] ;
185 -> 189 ;
190 [label="gini = 0.278\nsamples = 30\nvalue = [5, 25]"] ;
189 -> 190 ;
191 [label="gini = 0.413\nsamples = 24\nvalue = [17, 7]"] ;
189 -> 191 ;
192 [label="X[1] <= -0.055\ngini = 0.03\nsamples = 994\nvalue = [979, 15]"] ;
184 -> 192 ;
193 [label="gini = 0.49\nsamples = 7\nvalue = [3, 4]"] ;
192 -> 193 ;
194 [label="X[2] <= -0.291\ngini = 0.022\nsamples = 987\nvalue = [976, 11]"] ;
192 -> 194 ;
195 [label="gini = 0.408\nsamples = 7\nvalue = [5, 2]"] ;
194 -> 195 ;
196 [label="gini = 0.018\nsamples = 980\nvalue = [971, 9]"] ;
194 -> 196 ;
197 [label="X[5] <= 0.146\ngini = 0.197\nsamples = 1883\nvalue = [1674, 209]"] ;
167 -> 197 ;
198 [label="X[5] <= -0.667\ngini = 0.405\nsamples = 110\nvalue = [31, 79]"] ;
197 -> 198 ;
199 [label="X[5] <= -0.704\ngini = 0.497\nsamples = 37\nvalue = [20, 17]"] ;
198 -> 199 ;
200 [label="X[2] <= -0.186\ngini = 0.219\nsamples = 16\nvalue = [2, 14]"] ;
199 -> 200 ;
201 [label="gini = 0.0\nsamples = 9\nvalue = [0, 9]"] ;
200 -> 201 ;
202 [label="gini = 0.408\nsamples = 7\nvalue = [2, 5]"] ;
200 -> 202 ;
203 [label="X[2] <= -0.195\ngini = 0.245\nsamples = 21\nvalue = [18, 3]"] ;
199 -> 203 ;
204 [label="gini = 0.469\nsamples = 8\nvalue = [5, 3]"] ;
203 -> 204 ;
205 [label="gini = 0.0\nsamples = 13\nvalue = [13, 0]"] ;
203 -> 205 ;
206 [label="X[2] <= -0.223\ngini = 0.256\nsamples = 73\nvalue = [11, 62]"] ;
198 -> 206 ;
207 [label="gini = 0.0\nsamples = 31\nvalue = [0, 31]"] ;
206 -> 207 ;
208 [label="X[4] <= -0.77\ngini = 0.387\nsamples = 42\nvalue = [11, 31]"] ;
206 -> 208 ;
209 [label="gini = 0.5\nsamples = 10\nvalue = [5, 5]"] ;
208 -> 209 ;
210 [label="gini = 0.305\nsamples = 32\nvalue = [6, 26]"] ;
208 -> 210 ;
211 [label="X[1] <= -0.052\ngini = 0.136\nsamples = 1773\nvalue = [1643, 130]"] ;
197 -> 211 ;
212 [label="X[0] <= -0.283\ngini = 0.311\nsamples = 399\nvalue = [322, 77]"] ;
211 -> 212 ;
213 [label="X[1] <= -0.055\ngini = 0.123\nsamples = 137\nvalue = [128, 9]"] ;
212 -> 213 ;
214 [label="gini = 0.469\nsamples = 8\nvalue = [3, 5]"] ;
213 -> 214 ;
215 [label="gini = 0.06\nsamples = 129\nvalue = [125, 4]"] ;
213 -> 215 ;
216 [label="X[2] <= -0.279\ngini = 0.384\nsamples = 262\nvalue = [194, 68]"] ;
212 -> 216 ;
217 [label="gini = 0.499\nsamples = 27\nvalue = [13, 14]"] ;
216 -> 217 ;
218 [label="gini = 0.354\nsamples = 235\nvalue = [181, 54]"] ;
216 -> 218 ;
219 [label="X[2] <= -0.284\ngini = 0.074\nsamples = 1374\nvalue = [1321, 53]"] ;
211 -> 219 ;
220 [label="gini = 0.5\nsamples = 12\nvalue = [6, 6]"] ;
219 -> 220 ;
221 [label="X[2] <= 0.126\ngini = 0.067\nsamples = 1362\nvalue = [1315, 47]"] ;
219 -> 221 ;
222 [label="gini = 0.115\nsamples = 639\nvalue = [600, 39]"] ;
221 -> 222 ;
223 [label="gini = 0.022\nsamples = 723\nvalue = [715, 8]"] ;
221 -> 223 ;
224 [label="X[2] <= -0.129\ngini = 0.303\nsamples = 17827\nvalue = [3322, 14505]"] ;
0 -> 224 [labeldistance=2.5, labelangle=-45, headlabel="False"] ;
225 [label="X[2] <= -0.27\ngini = 0.127\nsamples = 12316\nvalue = [837, 11479]"] ;
224 -> 225 ;
226 [label="X[2] <= -0.326\ngini = 0.066\nsamples = 9616\nvalue = [326, 9290]"] ;
225 -> 226 ;
227 [label="X[0] <= -0.18\ngini = 0.027\nsamples = 6548\nvalue = [88, 6460]"] ;
226 -> 227 ;
228 [label="X[5] <= 0.997\ngini = 0.052\nsamples = 2448\nvalue = [65, 2383]"] ;
227 -> 228 ;
229 [label="X[2] <= -0.34\ngini = 0.041\nsamples = 2434\nvalue = [51, 2383]"] ;
228 -> 229 ;
230 [label="X[4] <= 1.783\ngini = 0.016\nsamples = 1823\nvalue = [15, 1808]"] ;
229 -> 230 ;
231 [label="X[2] <= -0.347\ngini = 0.012\nsamples = 1750\nvalue = [11, 1739]"] ;
230 -> 231 ;
232 [label="gini = 0.002\nsamples = 1087\nvalue = [1, 1086]"] ;
231 -> 232 ;
233 [label="gini = 0.03\nsamples = 663\nvalue = [10, 653]"] ;
231 -> 233 ;
234 [label="X[0] <= -0.186\ngini = 0.104\nsamples = 73\nvalue = [4, 69]"] ;
230 -> 234 ;
235 [label="gini = 0.059\nsamples = 66\nvalue = [2, 64]"] ;
234 -> 235 ;
236 [label="gini = 0.408\nsamples = 7\nvalue = [2, 5]"] ;
234 -> 236 ;
237 [label="X[1] <= -0.054\ngini = 0.111\nsamples = 611\nvalue = [36, 575]"] ;
229 -> 237 ;
238 [label="X[2] <= -0.339\ngini = 0.249\nsamples = 110\nvalue = [16, 94]"] ;
237 -> 238 ;
239 [label="gini = 0.5\nsamples = 10\nvalue = [5, 5]"] ;
238 -> 239 ;
240 [label="gini = 0.196\nsamples = 100\nvalue = [11, 89]"] ;
238 -> 240 ;
241 [label="X[5] <= 0.146\ngini = 0.077\nsamples = 501\nvalue = [20, 481]"] ;
237 -> 241 ;
242 [label="gini = 0.0\nsamples = 133\nvalue = [0, 133]"] ;
241 -> 242 ;
243 [label="gini = 0.103\nsamples = 368\nvalue = [20, 348]"] ;
241 -> 243 ;
244 [label="gini = 0.0\nsamples = 14\nvalue = [14, 0]"] ;
228 -> 244 ;
245 [label="X[2] <= -0.335\ngini = 0.011\nsamples = 4100\nvalue = [23, 4077]"] ;
227 -> 245 ;
246 [label="X[5] <= 1.644\ngini = 0.005\nsamples = 3252\nvalue = [8, 3244]"] ;
245 -> 246 ;
247 [label="X[5] <= 0.997\ngini = 0.004\nsamples = 3236\nvalue = [7, 3229]"] ;
246 -> 247 ;
248 [label="X[0] <= 0.136\ngini = 0.001\nsamples = 1857\nvalue = [1, 1856]"] ;
247 -> 248 ;
249 [label="gini = 0.0\nsamples = 1764\nvalue = [0, 1764]"] ;
248 -> 249 ;
250 [label="gini = 0.021\nsamples = 93\nvalue = [1, 92]"] ;
248 -> 250 ;
251 [label="X[0] <= -0.077\ngini = 0.009\nsamples = 1379\nvalue = [6, 1373]"] ;
247 -> 251 ;
252 [label="gini = 0.469\nsamples = 8\nvalue = [3, 5]"] ;
251 -> 252 ;
253 [label="gini = 0.004\nsamples = 1371\nvalue = [3, 1368]"] ;
251 -> 253 ;
254 [label="X[0] <= 2.981\ngini = 0.117\nsamples = 16\nvalue = [1, 15]"] ;
246 -> 254 ;
255 [label="gini = 0.245\nsamples = 7\nvalue = [1, 6]"] ;
254 -> 255 ;
256 [label="gini = 0.0\nsamples = 9\nvalue = [0, 9]"] ;
254 -> 256 ;
257 [label="X[4] <= 2.034\ngini = 0.035\nsamples = 848\nvalue = [15, 833]"] ;
245 -> 257 ;
258 [label="X[0] <= -0.17\ngini = 0.031\nsamples = 832\nvalue = [13, 819]"] ;
257 -> 258 ;
259 [label="X[4] <= -0.308\ngini = 0.124\nsamples = 30\nvalue = [2, 28]"] ;
258 -> 259 ;
260 [label="gini = 0.32\nsamples = 10\nvalue = [2, 8]"] ;
259 -> 260 ;
261 [label="gini = 0.0\nsamples = 20\nvalue = [0, 20]"] ;
259 -> 261 ;
262 [label="X[3] <= -1.908\ngini = 0.027\nsamples = 802\nvalue = [11, 791]"] ;
258 -> 262 ;
263 [label="gini = 0.153\nsamples = 12\nvalue = [1, 11]"] ;
262 -> 263 ;
264 [label="gini = 0.025\nsamples = 790\nvalue = [10, 780]"] ;
262 -> 264 ;
265 [label="X[0] <= 0.108\ngini = 0.219\nsamples = 16\nvalue = [2, 14]"] ;
257 -> 265 ;
266 [label="gini = 0.0\nsamples = 9\nvalue = [0, 9]"] ;
265 -> 266 ;
267 [label="gini = 0.408\nsamples = 7\nvalue = [2, 5]"] ;
265 -> 267 ;
268 [label="X[0] <= -0.161\ngini = 0.143\nsamples = 3068\nvalue = [238, 2830]"] ;
226 -> 268 ;
269 [label="X[5] <= 0.989\ngini = 0.281\nsamples = 912\nvalue = [154, 758]"] ;
268 -> 269 ;
270 [label="X[5] <= 0.15\ngini = 0.249\nsamples = 886\nvalue = [129, 757]"] ;
269 -> 270 ;
271 [label="X[5] <= 0.146\ngini = 0.291\nsamples = 719\nvalue = [127, 592]"] ;
270 -> 271 ;
272 [label="X[5] <= -0.706\ngini = 0.065\nsamples = 177\nvalue = [6, 171]"] ;
271 -> 272 ;
273 [label="gini = 0.0\nsamples = 118\nvalue = [0, 118]"] ;
272 -> 273 ;
274 [label="gini = 0.183\nsamples = 59\nvalue = [6, 53]"] ;
272 -> 274 ;
275 [label="X[0] <= -0.234\ngini = 0.347\nsamples = 542\nvalue = [121, 421]"] ;
271 -> 275 ;
276 [label="gini = 0.4\nsamples = 242\nvalue = [67, 175]"] ;
275 -> 276 ;
277 [label="gini = 0.295\nsamples = 300\nvalue = [54, 246]"] ;
275 -> 277 ;
278 [label="X[5] <= 0.936\ngini = 0.024\nsamples = 167\nvalue = [2, 165]"] ;
270 -> 278 ;
279 [label="gini = 0.0\nsamples = 159\nvalue = [0, 159]"] ;
278 -> 279 ;
280 [label="gini = 0.375\nsamples = 8\nvalue = [2, 6]"] ;
278 -> 280 ;
281 [label="X[1] <= -0.047\ngini = 0.074\nsamples = 26\nvalue = [25, 1]"] ;
269 -> 281 ;
282 [label="gini = 0.0\nsamples = 18\nvalue = [18, 0]"] ;
281 -> 282 ;
283 [label="gini = 0.219\nsamples = 8\nvalue = [7, 1]"] ;
281 -> 283 ;
284 [label="X[0] <= -0.091\ngini = 0.075\nsamples = 2156\nvalue = [84, 2072]"] ;
268 -> 284 ;
285 [label="X[5] <= 0.997\ngini = 0.156\nsamples = 386\nvalue = [33, 353]"] ;
284 -> 285 ;
286 [label="X[5] <= 0.17\ngini = 0.054\nsamples = 363\nvalue = [10, 353]"] ;
285 -> 286 ;
287 [label="X[2] <= -0.284\ngini = 0.124\nsamples = 150\nvalue = [10, 140]"] ;
286 -> 287 ;
288 [label="gini = 0.076\nsamples = 126\nvalue = [5, 121]"] ;
287 -> 288 ;
289 [label="gini = 0.33\nsamples = 24\nvalue = [5, 19]"] ;
287 -> 289 ;
290 [label="gini = 0.0\nsamples = 213\nvalue = [0, 213]"] ;
286 -> 290 ;
291 [label="gini = 0.0\nsamples = 23\nvalue = [23, 0]"] ;
285 -> 291 ;
292 [label="X[3] <= -2.27\ngini = 0.056\nsamples = 1770\nvalue = [51, 1719]"] ;
284 -> 292 ;
293 [label="gini = 0.375\nsamples = 8\nvalue = [2, 6]"] ;
292 -> 293 ;
294 [label="X[3] <= 0.989\ngini = 0.054\nsamples = 1762\nvalue = [49, 1713]"] ;
292 -> 294 ;
295 [label="X[5] <= 0.997\ngini = 0.068\nsamples = 1281\nvalue = [45, 1236]"] ;
294 -> 295 ;
296 [label="gini = 0.022\nsamples = 274\nvalue = [3, 271]"] ;
295 -> 296 ;
297 [label="gini = 0.08\nsamples = 1007\nvalue = [42, 965]"] ;
295 -> 297 ;
298 [label="X[2] <= -0.325\ngini = 0.016\nsamples = 481\nvalue = [4, 477]"] ;
294 -> 298 ;
299 [label="gini = 0.219\nsamples = 8\nvalue = [1, 7]"] ;
298 -> 299 ;
300 [label="gini = 0.013\nsamples = 473\nvalue = [3, 470]"] ;
298 -> 300 ;
301 [label="X[0] <= -0.181\ngini = 0.307\nsamples = 2700\nvalue = [511, 2189]"] ;
225 -> 301 ;
302 [label="X[5] <= 0.128\ngini = 0.495\nsamples = 703\nvalue = [315, 388]"] ;
301 -> 302 ;
303 [label="X[2] <= -0.18\ngini = 0.057\nsamples = 102\nvalue = [3, 99]"] ;
302 -> 303 ;
304 [label="X[4] <= 1.388\ngini = 0.024\nsamples = 83\nvalue = [1, 82]"] ;
303 -> 304 ;
305 [label="gini = 0.0\nsamples = 70\nvalue = [0, 70]"] ;
304 -> 305 ;
306 [label="gini = 0.142\nsamples = 13\nvalue = [1, 12]"] ;
304 -> 306 ;
307 [label="X[4] <= -0.471\ngini = 0.188\nsamples = 19\nvalue = [2, 17]"] ;
303 -> 307 ;
308 [label="gini = 0.408\nsamples = 7\nvalue = [2, 5]"] ;
307 -> 308 ;
309 [label="gini = 0.0\nsamples = 12\nvalue = [0, 12]"] ;
307 -> 309 ;
310 [label="X[5] <= 0.971\ngini = 0.499\nsamples = 601\nvalue = [312, 289]"] ;
302 -> 310 ;
311 [label="X[0] <= -0.24\ngini = 0.5\nsamples = 572\nvalue = [283, 289]"] ;
310 -> 311 ;
312 [label="X[1] <= -0.049\ngini = 0.468\nsamples = 262\nvalue = [164, 98]"] ;
311 -> 312 ;
313 [label="X[1] <= -0.053\ngini = 0.5\nsamples = 161\nvalue = [82, 79]"] ;
312 -> 313 ;
314 [label="gini = 0.383\nsamples = 31\nvalue = [8, 23]"] ;
313 -> 314 ;
315 [label="gini = 0.49\nsamples = 130\nvalue = [74, 56]"] ;
313 -> 315 ;
316 [label="X[1] <= -0.042\ngini = 0.305\nsamples = 101\nvalue = [82, 19]"] ;
312 -> 316 ;
317 [label="gini = 0.23\nsamples = 83\nvalue = [72, 11]"] ;
316 -> 317 ;
318 [label="gini = 0.494\nsamples = 18\nvalue = [10, 8]"] ;
316 -> 318 ;
319 [label="X[4] <= -0.481\ngini = 0.473\nsamples = 310\nvalue = [119, 191]"] ;
311 -> 319 ;
320 [label="X[2] <= -0.185\ngini = 0.345\nsamples = 122\nvalue = [27, 95]"] ;
319 -> 320 ;
321 [label="gini = 0.28\nsamples = 95\nvalue = [16, 79]"] ;
320 -> 321 ;
322 [label="gini = 0.483\nsamples = 27\nvalue = [11, 16]"] ;
320 -> 322 ;
323 [label="X[5] <= 0.15\ngini = 0.5\nsamples = 188\nvalue = [92, 96]"] ;
319 -> 323 ;
324 [label="gini = 0.497\nsamples = 168\nvalue = [90, 78]"] ;
323 -> 324 ;
325 [label="gini = 0.18\nsamples = 20\nvalue = [2, 18]"] ;
323 -> 325 ;
326 [label="gini = 0.0\nsamples = 29\nvalue = [29, 0]"] ;
310 -> 326 ;
327 [label="X[0] <= -0.062\ngini = 0.177\nsamples = 1997\nvalue = [196, 1801]"] ;
301 -> 327 ;
328 [label="X[5] <= 0.997\ngini = 0.311\nsamples = 451\nvalue = [87, 364]"] ;
327 -> 328 ;
329 [label="X[5] <= 0.152\ngini = 0.204\nsamples = 391\nvalue = [45, 346]"] ;
328 -> 329 ;
330 [label="X[5] <= -0.791\ngini = 0.315\nsamples = 199\nvalue = [39, 160]"] ;
329 -> 330 ;
331 [label="gini = 0.0\nsamples = 46\nvalue = [0, 46]"] ;
330 -> 331 ;
332 [label="X[1] <= -0.033\ngini = 0.38\nsamples = 153\nvalue = [39, 114]"] ;
330 -> 332 ;
333 [label="gini = 0.337\nsamples = 121\nvalue = [26, 95]"] ;
332 -> 333 ;
334 [label="gini = 0.482\nsamples = 32\nvalue = [13, 19]"] ;
332 -> 334 ;
335 [label="X[0] <= -0.154\ngini = 0.061\nsamples = 192\nvalue = [6, 186]"] ;
329 -> 335 ;
336 [label="X[5] <= 0.843\ngini = 0.175\nsamples = 31\nvalue = [3, 28]"] ;
335 -> 336 ;
337 [label="gini = 0.08\nsamples = 24\nvalue = [1, 23]"] ;
336 -> 337 ;
338 [label="gini = 0.408\nsamples = 7\nvalue = [2, 5]"] ;
336 -> 338 ;
339 [label="X[2] <= -0.139\ngini = 0.037\nsamples = 161\nvalue = [3, 158]"] ;
335 -> 339 ;
340 [label="gini = 0.026\nsamples = 154\nvalue = [2, 152]"] ;
339 -> 340 ;
341 [label="gini = 0.245\nsamples = 7\nvalue = [1, 6]"] ;
339 -> 341 ;
342 [label="X[0] <= -0.077\ngini = 0.42\nsamples = 60\nvalue = [42, 18]"] ;
328 -> 342 ;
343 [label="gini = 0.0\nsamples = 31\nvalue = [31, 0]"] ;
342 -> 343 ;
344 [label="X[4] <= -0.057\ngini = 0.471\nsamples = 29\nvalue = [11, 18]"] ;
342 -> 344 ;
345 [label="X[4] <= -0.76\ngini = 0.219\nsamples = 16\nvalue = [2, 14]"] ;
344 -> 345 ;
346 [label="gini = 0.0\nsamples = 9\nvalue = [0, 9]"] ;
345 -> 346 ;
347 [label="gini = 0.408\nsamples = 7\nvalue = [2, 5]"] ;
345 -> 347 ;
348 [label="gini = 0.426\nsamples = 13\nvalue = [9, 4]"] ;
344 -> 348 ;
349 [label="X[0] <= 0.279\ngini = 0.131\nsamples = 1546\nvalue = [109, 1437]"] ;
327 -> 349 ;
350 [label="X[1] <= 0.025\ngini = 0.178\nsamples = 951\nvalue = [94, 857]"] ;
349 -> 350 ;
351 [label="X[5] <= 0.997\ngini = 0.162\nsamples = 876\nvalue = [78, 798]"] ;
350 -> 351 ;
352 [label="X[5] <= 0.431\ngini = 0.052\nsamples = 189\nvalue = [5, 184]"] ;
351 -> 352 ;
353 [label="gini = 0.088\nsamples = 108\nvalue = [5, 103]"] ;
352 -> 353 ;
354 [label="gini = 0.0\nsamples = 81\nvalue = [0, 81]"] ;
352 -> 354 ;
355 [label="X[2] <= -0.184\ngini = 0.19\nsamples = 687\nvalue = [73, 614]"] ;
351 -> 355 ;
356 [label="gini = 0.163\nsamples = 479\nvalue = [43, 436]"] ;
355 -> 356 ;
357 [label="gini = 0.247\nsamples = 208\nvalue = [30, 178]"] ;
355 -> 357 ;
358 [label="X[4] <= 1.09\ngini = 0.336\nsamples = 75\nvalue = [16, 59]"] ;
350 -> 358 ;
359 [label="X[1] <= 0.035\ngini = 0.422\nsamples = 53\nvalue = [16, 37]"] ;
358 -> 359 ;
360 [label="gini = 0.49\nsamples = 28\nvalue = [12, 16]"] ;
359 -> 360 ;
361 [label="gini = 0.269\nsamples = 25\nvalue = [4, 21]"] ;
359 -> 361 ;
362 [label="gini = 0.0\nsamples = 22\nvalue = [0, 22]"] ;
358 -> 362 ;
363 [label="X[4] <= -0.491\ngini = 0.049\nsamples = 595\nvalue = [15, 580]"] ;
349 -> 363 ;
364 [label="X[1] <= 0.085\ngini = 0.153\nsamples = 48\nvalue = [4, 44]"] ;
363 -> 364 ;
365 [label="gini = 0.0\nsamples = 23\nvalue = [0, 23]"] ;
364 -> 365 ;
366 [label="X[0] <= 0.723\ngini = 0.269\nsamples = 25\nvalue = [4, 21]"] ;
364 -> 366 ;
367 [label="gini = 0.49\nsamples = 7\nvalue = [3, 4]"] ;
366 -> 367 ;
368 [label="gini = 0.105\nsamples = 18\nvalue = [1, 17]"] ;
366 -> 368 ;
369 [label="X[1] <= 0.079\ngini = 0.039\nsamples = 547\nvalue = [11, 536]"] ;
363 -> 369 ;
370 [label="X[0] <= 0.49\ngini = 0.079\nsamples = 171\nvalue = [7, 164]"] ;
369 -> 370 ;
371 [label="gini = 0.016\nsamples = 124\nvalue = [1, 123]"] ;
370 -> 371 ;
372 [label="gini = 0.223\nsamples = 47\nvalue = [6, 41]"] ;
370 -> 372 ;
373 [label="X[5] <= 1.078\ngini = 0.021\nsamples = 376\nvalue = [4, 372]"] ;
369 -> 373 ;
374 [label="gini = 0.0\nsamples = 242\nvalue = [0, 242]"] ;
373 -> 374 ;
375 [label="gini = 0.058\nsamples = 134\nvalue = [4, 130]"] ;
373 -> 375 ;
376 [label="X[0] <= -0.031\ngini = 0.495\nsamples = 5511\nvalue = [2485, 3026]"] ;
224 -> 376 ;
377 [label="X[5] <= 0.033\ngini = 0.369\nsamples = 2544\nvalue = [1922, 622]"] ;
376 -> 377 ;
378 [label="X[0] <= -0.261\ngini = 0.152\nsamples = 109\nvalue = [9, 100]"] ;
377 -> 378 ;
379 [label="gini = 0.49\nsamples = 7\nvalue = [3, 4]"] ;
378 -> 379 ;
380 [label="X[2] <= 0.383\ngini = 0.111\nsamples = 102\nvalue = [6, 96]"] ;
378 -> 380 ;
381 [label="X[0] <= -0.066\ngini = 0.026\nsamples = 75\nvalue = [1, 74]"] ;
380 -> 381 ;
382 [label="gini = 0.0\nsamples = 68\nvalue = [0, 68]"] ;
381 -> 382 ;
383 [label="gini = 0.245\nsamples = 7\nvalue = [1, 6]"] ;
381 -> 383 ;
384 [label="X[5] <= -1.597\ngini = 0.302\nsamples = 27\nvalue = [5, 22]"] ;
380 -> 384 ;
385 [label="gini = 0.0\nsamples = 11\nvalue = [0, 11]"] ;
384 -> 385 ;
386 [label="X[5] <= -0.375\ngini = 0.43\nsamples = 16\nvalue = [5, 11]"] ;
384 -> 386 ;
387 [label="gini = 0.49\nsamples = 7\nvalue = [4, 3]"] ;
386 -> 387 ;
388 [label="gini = 0.198\nsamples = 9\nvalue = [1, 8]"] ;
386 -> 388 ;
389 [label="X[2] <= 0.278\ngini = 0.337\nsamples = 2435\nvalue = [1913, 522]"] ;
377 -> 389 ;
390 [label="X[0] <= -0.183\ngini = 0.463\nsamples = 1067\nvalue = [678, 389]"] ;
389 -> 390 ;
391 [label="X[1] <= -0.052\ngini = 0.338\nsamples = 632\nvalue = [496, 136]"] ;
390 -> 391 ;
392 [label="X[2] <= 0.088\ngini = 0.472\nsamples = 34\nvalue = [13, 21]"] ;
391 -> 392 ;
393 [label="X[0] <= -0.238\ngini = 0.499\nsamples = 25\nvalue = [12, 13]"] ;
392 -> 393 ;
394 [label="gini = 0.426\nsamples = 13\nvalue = [9, 4]"] ;
393 -> 394 ;
395 [label="gini = 0.375\nsamples = 12\nvalue = [3, 9]"] ;
393 -> 395 ;
396 [label="gini = 0.198\nsamples = 9\nvalue = [1, 8]"] ;
392 -> 396 ;
397 [label="X[0] <= -0.214\ngini = 0.311\nsamples = 598\nvalue = [483, 115]"] ;
391 -> 397 ;
398 [label="X[5] <= 0.152\ngini = 0.261\nsamples = 461\nvalue = [390, 71]"] ;
397 -> 398 ;
399 [label="gini = 0.242\nsamples = 434\nvalue = [373, 61]"] ;
398 -> 399 ;
400 [label="gini = 0.466\nsamples = 27\nvalue = [17, 10]"] ;
398 -> 400 ;
401 [label="X[2] <= -0.002\ngini = 0.436\nsamples = 137\nvalue = [93, 44]"] ;
397 -> 401 ;
402 [label="gini = 0.494\nsamples = 65\nvalue = [36, 29]"] ;
401 -> 402 ;
403 [label="gini = 0.33\nsamples = 72\nvalue = [57, 15]"] ;
401 -> 403 ;
404 [label="X[1] <= -0.035\ngini = 0.487\nsamples = 435\nvalue = [182, 253]"] ;
390 -> 404 ;
405 [label="X[0] <= -0.12\ngini = 0.408\nsamples = 189\nvalue = [54, 135]"] ;
404 -> 405 ;
406 [label="X[5] <= 0.973\ngini = 0.466\nsamples = 130\nvalue = [48, 82]"] ;
405 -> 406 ;
407 [label="gini = 0.419\nsamples = 117\nvalue = [35, 82]"] ;
406 -> 407 ;
408 [label="gini = 0.0\nsamples = 13\nvalue = [13, 0]"] ;
406 -> 408 ;
409 [label="X[3] <= -0.821\ngini = 0.183\nsamples = 59\nvalue = [6, 53]"] ;
405 -> 409 ;
410 [label="gini = 0.444\nsamples = 12\nvalue = [4, 8]"] ;
409 -> 410 ;
411 [label="gini = 0.081\nsamples = 47\nvalue = [2, 45]"] ;
409 -> 411 ;
412 [label="X[5] <= 0.15\ngini = 0.499\nsamples = 246\nvalue = [128, 118]"] ;
404 -> 412 ;
413 [label="X[4] <= 0.338\ngini = 0.412\nsamples = 86\nvalue = [61, 25]"] ;
412 -> 413 ;
414 [label="gini = 0.17\nsamples = 32\nvalue = [29, 3]"] ;
413 -> 414 ;
415 [label="gini = 0.483\nsamples = 54\nvalue = [32, 22]"] ;
413 -> 415 ;
416 [label="X[5] <= 0.997\ngini = 0.487\nsamples = 160\nvalue = [67, 93]"] ;
412 -> 416 ;
417 [label="gini = 0.065\nsamples = 59\nvalue = [2, 57]"] ;
416 -> 417 ;
418 [label="gini = 0.459\nsamples = 101\nvalue = [65, 36]"] ;
416 -> 418 ;
419 [label="X[0] <= -0.106\ngini = 0.176\nsamples = 1368\nvalue = [1235, 133]"] ;
389 -> 419 ;
420 [label="X[1] <= -0.052\ngini = 0.132\nsamples = 1214\nvalue = [1128, 86]"] ;
419 -> 420 ;
421 [label="gini = 0.375\nsamples = 8\nvalue = [2, 6]"] ;
420 -> 421 ;
422 [label="X[0] <= -0.162\ngini = 0.124\nsamples = 1206\nvalue = [1126, 80]"] ;
420 -> 422 ;
423 [label="X[1] <= -0.047\ngini = 0.095\nsamples = 1001\nvalue = [951, 50]"] ;
422 -> 423 ;
424 [label="gini = 0.265\nsamples = 89\nvalue = [75, 14]"] ;
423 -> 424 ;
425 [label="gini = 0.076\nsamples = 912\nvalue = [876, 36]"] ;
423 -> 425 ;
426 [label="X[1] <= -0.038\ngini = 0.25\nsamples = 205\nvalue = [175, 30]"] ;
422 -> 426 ;
427 [label="gini = 0.483\nsamples = 27\nvalue = [16, 11]"] ;
426 -> 427 ;
428 [label="gini = 0.191\nsamples = 178\nvalue = [159, 19]"] ;
426 -> 428 ;
429 [label="X[1] <= -0.035\ngini = 0.424\nsamples = 154\nvalue = [107, 47]"] ;
419 -> 429 ;
430 [label="X[5] <= 0.949\ngini = 0.231\nsamples = 15\nvalue = [2, 13]"] ;
429 -> 430 ;
431 [label="gini = 0.0\nsamples = 8\nvalue = [0, 8]"] ;
430 -> 431 ;
432 [label="gini = 0.408\nsamples = 7\nvalue = [2, 5]"] ;
430 -> 432 ;
433 [label="X[5] <= 0.995\ngini = 0.37\nsamples = 139\nvalue = [105, 34]"] ;
429 -> 433 ;
434 [label="X[5] <= 0.507\ngini = 0.494\nsamples = 45\nvalue = [25, 20]"] ;
433 -> 434 ;
435 [label="gini = 0.245\nsamples = 28\nvalue = [24, 4]"] ;
434 -> 435 ;
436 [label="gini = 0.111\nsamples = 17\nvalue = [1, 16]"] ;
434 -> 436 ;
437 [label="X[3] <= 1.351\ngini = 0.254\nsamples = 94\nvalue = [80, 14]"] ;
433 -> 437 ;
438 [label="gini = 0.193\nsamples = 83\nvalue = [74, 9]"] ;
437 -> 438 ;
439 [label="gini = 0.496\nsamples = 11\nvalue = [6, 5]"] ;
437 -> 439 ;
440 [label="X[0] <= 0.429\ngini = 0.307\nsamples = 2967\nvalue = [563, 2404]"] ;
376 -> 440 ;
441 [label="X[2] <= 0.672\ngini = 0.394\nsamples = 1452\nvalue = [391, 1061]"] ;
440 -> 441 ;
442 [label="X[5] <= 0.139\ngini = 0.324\nsamples = 1081\nvalue = [220, 861]"] ;
441 -> 442 ;
443 [label="gini = 0.0\nsamples = 82\nvalue = [0, 82]"] ;
442 -> 443 ;
444 [label="X[5] <= 0.152\ngini = 0.343\nsamples = 999\nvalue = [220, 779]"] ;
442 -> 444 ;
445 [label="gini = 0.0\nsamples = 9\nvalue = [9, 0]"] ;
444 -> 445 ;
446 [label="X[2] <= 0.039\ngini = 0.335\nsamples = 990\nvalue = [211, 779]"] ;
444 -> 446 ;
447 [label="X[4] <= 1.764\ngini = 0.259\nsamples = 451\nvalue = [69, 382]"] ;
446 -> 447 ;
448 [label="gini = 0.227\nsamples = 399\nvalue = [52, 347]"] ;
447 -> 448 ;
449 [label="gini = 0.44\nsamples = 52\nvalue = [17, 35]"] ;
447 -> 449 ;
450 [label="X[3] <= -0.459\ngini = 0.388\nsamples = 539\nvalue = [142, 397]"] ;
446 -> 450 ;
451 [label="gini = 0.461\nsamples = 153\nvalue = [55, 98]"] ;
450 -> 451 ;
452 [label="gini = 0.349\nsamples = 386\nvalue = [87, 299]"] ;
450 -> 452 ;
453 [label="X[0] <= 0.103\ngini = 0.497\nsamples = 371\nvalue = [171, 200]"] ;
441 -> 453 ;
454 [label="X[1] <= -0.028\ngini = 0.486\nsamples = 146\nvalue = [85, 61]"] ;
453 -> 454 ;
455 [label="X[0] <= 0.002\ngini = 0.32\nsamples = 20\nvalue = [4, 16]"] ;
454 -> 455 ;
456 [label="gini = 0.0\nsamples = 7\nvalue = [0, 7]"] ;
455 -> 456 ;
457 [label="gini = 0.426\nsamples = 13\nvalue = [4, 9]"] ;
455 -> 457 ;
458 [label="X[4] <= -0.963\ngini = 0.459\nsamples = 126\nvalue = [81, 45]"] ;
454 -> 458 ;
459 [label="X[2] <= 2.076\ngini = 0.469\nsamples = 16\nvalue = [6, 10]"] ;
458 -> 459 ;
460 [label="gini = 0.375\nsamples = 8\nvalue = [2, 6]"] ;
459 -> 460 ;
461 [label="gini = 0.5\nsamples = 8\nvalue = [4, 4]"] ;
459 -> 461 ;
462 [label="X[2] <= 0.791\ngini = 0.434\nsamples = 110\nvalue = [75, 35]"] ;
458 -> 462 ;
463 [label="gini = 0.459\nsamples = 14\nvalue = [5, 9]"] ;
462 -> 463 ;
464 [label="gini = 0.395\nsamples = 96\nvalue = [70, 26]"] ;
462 -> 464 ;
465 [label="X[4] <= 1.995\ngini = 0.472\nsamples = 225\nvalue = [86, 139]"] ;
453 -> 465 ;
466 [label="X[2] <= 6.415\ngini = 0.462\nsamples = 213\nvalue = [77, 136]"] ;
465 -> 466 ;
467 [label="X[1] <= -0.03\ngini = 0.452\nsamples = 206\nvalue = [71, 135]"] ;
466 -> 467 ;
468 [label="gini = 0.0\nsamples = 9\nvalue = [0, 9]"] ;
467 -> 468 ;
469 [label="gini = 0.461\nsamples = 197\nvalue = [71, 126]"] ;
467 -> 469 ;
470 [label="gini = 0.245\nsamples = 7\nvalue = [6, 1]"] ;
466 -> 470 ;
471 [label="gini = 0.375\nsamples = 12\nvalue = [9, 3]"] ;
465 -> 471 ;
472 [label="X[2] <= 0.608\ngini = 0.201\nsamples = 1515\nvalue = [172, 1343]"] ;
440 -> 472 ;
473 [label="X[0] <= 1.248\ngini = 0.131\nsamples = 891\nvalue = [63, 828]"] ;
472 -> 473 ;
474 [label="X[5] <= 1.124\ngini = 0.179\nsamples = 433\nvalue = [43, 390]"] ;
473 -> 474 ;
475 [label="X[1] <= 0.13\ngini = 0.151\nsamples = 425\nvalue = [35, 390]"] ;
474 -> 475 ;
476 [label="X[4] <= -0.703\ngini = 0.111\nsamples = 289\nvalue = [17, 272]"] ;
475 -> 476 ;
477 [label="gini = 0.34\nsamples = 23\nvalue = [5, 18]"] ;
476 -> 477 ;
478 [label="gini = 0.086\nsamples = 266\nvalue = [12, 254]"] ;
476 -> 478 ;
479 [label="X[0] <= 0.971\ngini = 0.23\nsamples = 136\nvalue = [18, 118]"] ;
475 -> 479 ;
480 [label="gini = 0.381\nsamples = 43\nvalue = [11, 32]"] ;
479 -> 480 ;
481 [label="gini = 0.139\nsamples = 93\nvalue = [7, 86]"] ;
479 -> 481 ;
482 [label="gini = 0.0\nsamples = 8\nvalue = [8, 0]"] ;
474 -> 482 ;
483 [label="X[5] <= 1.779\ngini = 0.084\nsamples = 458\nvalue = [20, 438]"] ;
473 -> 483 ;
484 [label="X[0] <= 4.951\ngini = 0.021\nsamples = 192\nvalue = [2, 190]"] ;
483 -> 484 ;
485 [label="X[2] <= 0.49\ngini = 0.011\nsamples = 185\nvalue = [1, 184]"] ;
484 -> 485 ;
486 [label="gini = 0.0\nsamples = 170\nvalue = [0, 170]"] ;
485 -> 486 ;
487 [label="gini = 0.124\nsamples = 15\nvalue = [1, 14]"] ;
485 -> 487 ;
488 [label="gini = 0.245\nsamples = 7\nvalue = [1, 6]"] ;
484 -> 488 ;
489 [label="X[0] <= 2.116\ngini = 0.126\nsamples = 266\nvalue = [18, 248]"] ;
483 -> 489 ;
490 [label="gini = 0.245\nsamples = 7\nvalue = [6, 1]"] ;
489 -> 490 ;
491 [label="X[3] <= -1.183\ngini = 0.088\nsamples = 259\nvalue = [12, 247]"] ;
489 -> 491 ;
492 [label="gini = 0.211\nsamples = 25\nvalue = [3, 22]"] ;
491 -> 492 ;
493 [label="gini = 0.074\nsamples = 234\nvalue = [9, 225]"] ;
491 -> 493 ;
494 [label="X[0] <= 0.878\ngini = 0.288\nsamples = 624\nvalue = [109, 515]"] ;
472 -> 494 ;
495 [label="X[1] <= 0.109\ngini = 0.407\nsamples = 148\nvalue = [42, 106]"] ;
494 -> 495 ;
496 [label="X[4] <= 1.62\ngini = 0.326\nsamples = 112\nvalue = [23, 89]"] ;
495 -> 496 ;
497 [label="X[1] <= 0.09\ngini = 0.242\nsamples = 85\nvalue = [12, 73]"] ;
496 -> 497 ;
498 [label="gini = 0.155\nsamples = 59\nvalue = [5, 54]"] ;
497 -> 498 ;
499 [label="gini = 0.393\nsamples = 26\nvalue = [7, 19]"] ;
497 -> 499 ;
500 [label="X[0] <= 0.604\ngini = 0.483\nsamples = 27\nvalue = [11, 16]"] ;
496 -> 500 ;
501 [label="gini = 0.499\nsamples = 19\nvalue = [10, 9]"] ;
500 -> 501 ;
502 [label="gini = 0.219\nsamples = 8\nvalue = [1, 7]"] ;
500 -> 502 ;
503 [label="X[2] <= 1.872\ngini = 0.498\nsamples = 36\nvalue = [19, 17]"] ;
495 -> 503 ;
504 [label="X[4] <= 0.81\ngini = 0.444\nsamples = 18\nvalue = [6, 12]"] ;
503 -> 504 ;
505 [label="gini = 0.494\nsamples = 9\nvalue = [5, 4]"] ;
504 -> 505 ;
506 [label="gini = 0.198\nsamples = 9\nvalue = [1, 8]"] ;
504 -> 506 ;
507 [label="X[1] <= 0.126\ngini = 0.401\nsamples = 18\nvalue = [13, 5]"] ;
503 -> 507 ;
508 [label="gini = 0.494\nsamples = 9\nvalue = [5, 4]"] ;
507 -> 508 ;
509 [label="gini = 0.198\nsamples = 9\nvalue = [8, 1]"] ;
507 -> 509 ;
510 [label="X[4] <= 0.184\ngini = 0.242\nsamples = 476\nvalue = [67, 409]"] ;
494 -> 510 ;
511 [label="X[0] <= 1.141\ngini = 0.094\nsamples = 101\nvalue = [5, 96]"] ;
510 -> 511 ;
512 [label="X[1] <= 0.138\ngini = 0.32\nsamples = 15\nvalue = [3, 12]"] ;
511 -> 512 ;
513 [label="gini = 0.0\nsamples = 8\nvalue = [0, 8]"] ;
512 -> 513 ;
514 [label="gini = 0.49\nsamples = 7\nvalue = [3, 4]"] ;
512 -> 514 ;
515 [label="X[2] <= 0.744\ngini = 0.045\nsamples = 86\nvalue = [2, 84]"] ;
511 -> 515 ;
516 [label="gini = 0.245\nsamples = 7\nvalue = [1, 6]"] ;
515 -> 516 ;
517 [label="gini = 0.025\nsamples = 79\nvalue = [1, 78]"] ;
515 -> 517 ;
518 [label="X[2] <= 0.658\ngini = 0.276\nsamples = 375\nvalue = [62, 313]"] ;
510 -> 518 ;
519 [label="X[5] <= 1.825\ngini = 0.472\nsamples = 21\nvalue = [8, 13]"] ;
518 -> 519 ;
520 [label="gini = 0.219\nsamples = 8\nvalue = [1, 7]"] ;
519 -> 520 ;
521 [label="gini = 0.497\nsamples = 13\nvalue = [7, 6]"] ;
519 -> 521 ;
522 [label="X[5] <= 1.756\ngini = 0.259\nsamples = 354\nvalue = [54, 300]"] ;
518 -> 522 ;
523 [label="gini = 0.187\nsamples = 134\nvalue = [14, 120]"] ;
522 -> 523 ;
524 [label="gini = 0.298\nsamples = 220\nvalue = [40, 180]"] ;
522 -> 524 ;
}