digraph Tree {
node [shape=box] ;
0 [label="X[15] <= -0.004\ngini = 0.491\nsamples = 3505\nvalue = [1986, 1519]"] ;
1 [label="X[20] <= -0.507\ngini = 0.34\nsamples = 1840\nvalue = [1441, 399]"] ;
0 -> 1 [labeldistance=2.5, labelangle=45, headlabel="True"] ;
2 [label="X[196] <= 9.515\ngini = 0.162\nsamples = 743\nvalue = [677, 66]"] ;
1 -> 2 ;
3 [label="X[6] <= -1.937\ngini = 0.15\nsamples = 737\nvalue = [677, 60]"] ;
2 -> 3 ;
4 [label="X[25] <= -0.237\ngini = 0.494\nsamples = 18\nvalue = [8, 10]"] ;
3 -> 4 ;
5 [label="gini = 0.355\nsamples = 13\nvalue = [3, 10]"] ;
4 -> 5 ;
8 [label="gini = 0.0\nsamples = 5\nvalue = [5, 0]"] ;
4 -> 8 ;
9 [label="gini = 0.129\nsamples = 719\nvalue = [669, 50]"] ;
3 -> 9 ;
22 [label="gini = 0.0\nsamples = 6\nvalue = [0, 6]"] ;
2 -> 22 ;
23 [label="X[15] <= -0.927\ngini = 0.423\nsamples = 1097\nvalue = [764, 333]"] ;
1 -> 23 ;
24 [label="gini = 0.219\nsamples = 208\nvalue = [182, 26]"] ;
23 -> 24 ;
51 [label="X[12] <= -2.052\ngini = 0.452\nsamples = 889\nvalue = [582, 307]"] ;
23 -> 51 ;
52 [label="X[24] <= -1.308\ngini = 0.204\nsamples = 26\nvalue = [3, 23]"] ;
51 -> 52 ;
53 [label="gini = 0.48\nsamples = 5\nvalue = [3, 2]"] ;
52 -> 53 ;
54 [label="gini = 0.0\nsamples = 21\nvalue = [0, 21]"] ;
52 -> 54 ;
55 [label="X[2] <= -0.476\ngini = 0.442\nsamples = 863\nvalue = [579, 284]"] ;
51 -> 55 ;
56 [label="X[21] <= -1.552\ngini = 0.489\nsamples = 375\nvalue = [215, 160]"] ;
55 -> 56 ;
57 [label="X[5] <= 0.409\ngini = 0.35\nsamples = 31\nvalue = [7, 24]"] ;
56 -> 57 ;
58 [label="X[5] <= 0.212\ngini = 0.455\nsamples = 20\nvalue = [7, 13]"] ;
57 -> 58 ;
59 [label="gini = 0.198\nsamples = 9\nvalue = [1, 8]"] ;
58 -> 59 ;
62 [label="gini = 0.496\nsamples = 11\nvalue = [6, 5]"] ;
58 -> 62 ;
65 [label="gini = 0.0\nsamples = 11\nvalue = [0, 11]"] ;
57 -> 65 ;
66 [label="X[0] <= -1.381\ngini = 0.478\nsamples = 344\nvalue = [208, 136]"] ;
56 -> 66 ;
67 [label="gini = 0.231\nsamples = 15\nvalue = [2, 13]"] ;
66 -> 67 ;
70 [label="X[4] <= -1.024\ngini = 0.468\nsamples = 329\nvalue = [206, 123]"] ;
66 -> 70 ;
71 [label="gini = 0.153\nsamples = 12\nvalue = [1, 11]"] ;
70 -> 71 ;
74 [label="X[11] <= -2.549\ngini = 0.457\nsamples = 317\nvalue = [205, 112]"] ;
70 -> 74 ;
75 [label="gini = 0.26\nsamples = 13\nvalue = [2, 11]"] ;
74 -> 75 ;
76 [label="gini = 0.444\nsamples = 304\nvalue = [203, 101]"] ;
74 -> 76 ;
77 [label="gini = 0.379\nsamples = 488\nvalue = [364, 124]"] ;
55 -> 77 ;
106 [label="X[20] <= -0.507\ngini = 0.44\nsamples = 1665\nvalue = [545, 1120]"] ;
0 -> 106 [labeldistance=2.5, labelangle=-45, headlabel="False"] ;
107 [label="X[18] <= -0.49\ngini = 0.46\nsamples = 243\nvalue = [156, 87]"] ;
106 -> 107 ;
108 [label="gini = 0.267\nsamples = 82\nvalue = [69, 13]"] ;
107 -> 108 ;
123 [label="X[10] <= -0.428\ngini = 0.497\nsamples = 161\nvalue = [87, 74]"] ;
107 -> 123 ;
124 [label="X[2] <= 1.589\ngini = 0.461\nsamples = 61\nvalue = [22, 39]"] ;
123 -> 124 ;
125 [label="X[8] <= -1.652\ngini = 0.389\nsamples = 53\nvalue = [14, 39]"] ;
124 -> 125 ;
126 [label="gini = 0.463\nsamples = 11\nvalue = [7, 4]"] ;
125 -> 126 ;
129 [label="gini = 0.278\nsamples = 42\nvalue = [7, 35]"] ;
125 -> 129 ;
136 [label="gini = 0.0\nsamples = 8\nvalue = [8, 0]"] ;
124 -> 136 ;
137 [label="X[26] <= -0.969\ngini = 0.455\nsamples = 100\nvalue = [65, 35]"] ;
123 -> 137 ;
138 [label="gini = 0.477\nsamples = 28\nvalue = [11, 17]"] ;
137 -> 138 ;
147 [label="X[14] <= -0.066\ngini = 0.375\nsamples = 72\nvalue = [54, 18]"] ;
137 -> 147 ;
148 [label="gini = 0.149\nsamples = 37\nvalue = [34, 3]"] ;
147 -> 148 ;
153 [label="X[20] <= -1.454\ngini = 0.49\nsamples = 35\nvalue = [20, 15]"] ;
147 -> 153 ;
154 [label="gini = 0.165\nsamples = 11\nvalue = [10, 1]"] ;
153 -> 154 ;
157 [label="gini = 0.486\nsamples = 24\nvalue = [10, 14]"] ;
153 -> 157 ;
164 [label="X[15] <= 0.524\ngini = 0.397\nsamples = 1422\nvalue = [389, 1033]"] ;
106 -> 164 ;
165 [label="X[4] <= 3.103\ngini = 0.478\nsamples = 611\nvalue = [242, 369]"] ;
164 -> 165 ;
166 [label="X[2] <= 0.212\ngini = 0.471\nsamples = 595\nvalue = [226, 369]"] ;
165 -> 166 ;
167 [label="X[185] <= 2.291\ngini = 0.436\nsamples = 367\nvalue = [118, 249]"] ;
166 -> 167 ;
168 [label="X[0] <= -0.204\ngini = 0.422\nsamples = 354\nvalue = [107, 247]"] ;
167 -> 168 ;
169 [label="gini = 0.339\nsamples = 171\nvalue = [37, 134]"] ;
168 -> 169 ;
174 [label="X[6] <= -0.843\ngini = 0.472\nsamples = 183\nvalue = [70, 113]"] ;
168 -> 174 ;
175 [label="gini = 0.0\nsamples = 17\nvalue = [0, 17]"] ;
174 -> 175 ;
176 [label="X[28] <= -0.943\ngini = 0.488\nsamples = 166\nvalue = [70, 96]"] ;
174 -> 176 ;
177 [label="gini = 0.478\nsamples = 43\nvalue = [26, 17]"] ;
176 -> 177 ;
178 [label="gini = 0.46\nsamples = 123\nvalue = [44, 79]"] ;
176 -> 178 ;
179 [label="gini = 0.26\nsamples = 13\nvalue = [11, 2]"] ;
167 -> 179 ;
182 [label="X[6] <= -0.047\ngini = 0.499\nsamples = 228\nvalue = [108, 120]"] ;
166 -> 182 ;
183 [label="X[35] <= -1.326\ngini = 0.49\nsamples = 152\nvalue = [87, 65]"] ;
182 -> 183 ;
184 [label="gini = 0.291\nsamples = 17\nvalue = [3, 14]"] ;
183 -> 184 ;
187 [label="gini = 0.47\nsamples = 135\nvalue = [84, 51]"] ;
183 -> 187 ;
194 [label="X[0] <= 0.972\ngini = 0.4\nsamples = 76\nvalue = [21, 55]"] ;
182 -> 194 ;
195 [label="gini = 0.356\nsamples = 69\nvalue = [16, 53]"] ;
194 -> 195 ;
200 [label="gini = 0.408\nsamples = 7\nvalue = [5, 2]"] ;
194 -> 200 ;
201 [label="gini = 0.0\nsamples = 16\nvalue = [16, 0]"] ;
165 -> 201 ;
202 [label="X[3] <= 2.049\ngini = 0.297\nsamples = 811\nvalue = [147, 664]"] ;
164 -> 202 ;
203 [label="gini = 0.275\nsamples = 773\nvalue = [127, 646]"] ;
202 -> 203 ;
244 [label="X[7] <= -0.125\ngini = 0.499\nsamples = 38\nvalue = [20, 18]"] ;
202 -> 244 ;
245 [label="gini = 0.0\nsamples = 8\nvalue = [0, 8]"] ;
244 -> 245 ;
246 [label="X[16] <= 0.749\ngini = 0.444\nsamples = 30\nvalue = [20, 10]"] ;
244 -> 246 ;
247 [label="gini = 0.266\nsamples = 19\nvalue = [16, 3]"] ;
246 -> 247 ;
250 [label="gini = 0.463\nsamples = 11\nvalue = [4, 7]"] ;
246 -> 250 ;
}